digraph Tree {
node [shape=box, style="filled, rounded", color="black", fontname=helvetica] ;
edge [fontname=helvetica] ;
0 [label="petal length (cm) <= 2.45\ngini = 0.66\nsamples = 93\nvalue = [42, 55, 53]\nclass = versicolor", fillcolor="#fbfefc"] ;
1 [label="gini = 0.0\nsamples = 29\nvalue = [42, 0, 0]\nclass = setosa", fillcolor="#e58139"] ;
0 -> 1 [labeldistance=2.5, labelangle=45, headlabel="True"] ;
2 [label="petal width (cm) <= 1.6\ngini = 0.5\nsamples = 64\nvalue = [0, 55, 53]\nclass = versicolor", fillcolor="#f8fefa"] ;
0 -> 2 [labeldistance=2.5, labelangle=-45, headlabel="False"] ;
3 [label="sepal length (cm) <= 6.05\ngini = 0.07\nsamples = 31\nvalue = [0, 51, 2]\nclass = versicolor", fillcolor="#41e686"] ;
2 -> 3 ;
4 [label="gini = 0.0\nsamples = 18\nvalue = [0, 33, 0]\nclass = versicolor", fillcolor="#39e581"] ;
3 -> 4 ;
5 [label="sepal length (cm) <= 6.35\ngini = 0.18\nsamples = 13\nvalue = [0, 18, 2]\nclass = versicolor", fillcolor="#4fe88f"] ;
3 -> 5 ;
6 [label="petal width (cm) <= 1.35\ngini = 0.5\nsamples = 4\nvalue = [0, 2, 2]\nclass = versicolor", fillcolor="#ffffff"] ;
5 -> 6 ;
7 [label="gini = 0.0\nsamples = 2\nvalue = [0, 2, 0]\nclass = versicolor", fillcolor="#39e581"] ;
6 -> 7 ;
8 [label="gini = 0.0\nsamples = 2\nvalue = [0, 0, 2]\nclass = virginica", fillcolor="#8139e5"] ;
6 -> 8 ;
9 [label="gini = 0.0\nsamples = 9\nvalue = [0, 16, 0]\nclass = versicolor", fillcolor="#39e581"] ;
5 -> 9 ;
10 [label="petal length (cm) <= 5.05\ngini = 0.13\nsamples = 33\nvalue = [0, 4, 51]\nclass = virginica", fillcolor="#8b49e7"] ;
2 -> 10 ;
11 [label="sepal length (cm) <= 6.5\ngini = 0.38\nsamples = 9\nvalue = [0, 4, 12]\nclass = virginica", fillcolor="#ab7bee"] ;
10 -> 11 ;
12 [label="sepal length (cm) <= 5.95\ngini = 0.24\nsamples = 8\nvalue = [0, 2, 12]\nclass = virginica", fillcolor="#965ae9"] ;
11 -> 12 ;
13 [label="sepal width (cm) <= 3.0\ngini = 0.44\nsamples = 3\nvalue = [0, 2, 4]\nclass = virginica", fillcolor="#c09cf2"] ;
12 -> 13 ;
14 [label="gini = 0.0\nsamples = 2\nvalue = [0, 0, 4]\nclass = virginica", fillcolor="#8139e5"] ;
13 -> 14 ;
15 [label="gini = 0.0\nsamples = 1\nvalue = [0, 2, 0]\nclass = versicolor", fillcolor="#39e581"] ;
13 -> 15 ;
16 [label="gini = 0.0\nsamples = 5\nvalue = [0, 0, 8]\nclass = virginica", fillcolor="#8139e5"] ;
12 -> 16 ;
17 [label="gini = 0.0\nsamples = 1\nvalue = [0, 2, 0]\nclass = versicolor", fillcolor="#39e581"] ;
11 -> 17 ;
18 [label="gini = 0.0\nsamples = 24\nvalue = [0, 0, 39]\nclass = virginica", fillcolor="#8139e5"] ;
10 -> 18 ;
}